<?xml version="1.0" encoding="ISO-8859-1"?>
<smile version="1.0" id="Unnamed" numsamples="1000" discsamples="10000">
	<nodes>
		<cpt id="Vtotal_sulfur_dioxide">
			<state id="s1_below_50" />
			<state id="s2_50_100" />
			<state id="s3_100_150" />
			<state id="s4_150_200" />
			<state id="s5_200_up" />
			<probabilities>0.1674669128962758 0.1950138504155125 0.3495229301323484 0.224715297014466 0.06328100954139734</probabilities>
		</cpt>
		<cpt id="Vresidual_sugar">
			<state id="s1_below_4" />
			<state id="s2_4_8" />
			<state id="s3_8_12" />
			<state id="s4_12_16" />
			<state id="s5_16_up" />
			<parents>Vtotal_sulfur_dioxide</parents>
			<probabilities>0.9193755739210283 0.06905417814508723 0.006611570247933882 0.004775022956841138 0.0001836547291092745 0.7564668769716088 0.1626182965299684 0.06088328075709779 0.01829652996845426 0.001735015772870662 0.5102112676056338 0.2368838028169014 0.1308098591549296 0.07887323943661971 0.0432218309859155 0.2643394934976044 0.2328542094455852 0.2253251197809719 0.2109514031485284 0.06652977412731007 0.08786407766990291 0.2966019417475728 0.2796116504854369 0.2529126213592233 0.08300970873786408</probabilities>
		</cpt>
		<cpt id="type">
			<state id="red" />
			<state id="white" />
			<parents>Vtotal_sulfur_dioxide</parents>
			<probabilities>0.04269972451790634 0.9573002754820936 0.6628548895899054 0.3371451104100947 0.9465228873239436 0.05347711267605634 0.9948665297741273 0.00513347022587269 0.9939320388349514 0.006067961165048543</probabilities>
		</cpt>
		<cpt id="alcohol">
			<state id="s1_below_9" />
			<state id="s2_9_10" />
			<state id="s3_10_11" />
			<state id="s4_11_12" />
			<state id="s5_12_up" />
			<parents>Vresidual_sugar type</parents>
			<probabilities>0.01212121212121212 0.17999037999038 0.2983164983164984 0.2752284752284753 0.2343434343434344 0.00355191256830601 0.4345628415300546 0.2788251366120218 0.1907103825136612 0.09234972677595627 0.01988003427592117 0.3309340188517567 0.2598114824335904 0.1869751499571551 0.2023993144815767 0.001724137931034483 0.2517241379310345 0.3293103448275863 0.2086206896551724 0.2086206896551724 0.0949569495694957 0.4369003690036901 0.2794587945879459 0.1084870848708487 0.08019680196801969 0.01428571428571429 0.3714285714285714 0.3 0.0857142857142857 0.2285714285714286 0.1800653594771242 0.6098039215686273 0.1408496732026144 0.03627450980392156 0.03300653594771241 0.2444444444444445 0.3555555555555556 0.2444444444444445 0.1333333333333333 0.02222222222222222 0.3543103448275863 0.5094827586206898 0.08706896551724139 0.02672413793103449 0.02241379310344828 0.2 0.2 0.2 0.2 0.2</probabilities>
		</cpt>
		<cpt id="density">
			<state id="s1_below_0" />
			<state id="s2_0_0" />
			<state id="s3_0_0" />
			<state id="s4_0_0" />
			<state id="s5_0_up" />
			<parents>Vresidual_sugar alcohol type</parents>
			<probabilities>0.007692307692307693 0.04615384615384616 0.8923076923076924 0.04615384615384616 0.007692307692307693 0.03333333333333333 0.03333333333333333 0.03333333333333333 0.3666666666666667 0.5333333333333333 0.0005333333333333334 0.2672 0.7178666666666667 0.01386666666666667 0.0005333333333333334 0.0003139717425431712 0.0003139717425431712 0.1227629513343799 0.7695447409733124 0.1070643642072214 0.0035426731078905 0.6154589371980677 0.3674718196457327 0.01320450885668277 0.000322061191626409 0.000488997555012225 0.005378973105134475 0.3061124694376528 0.5823960880195599 0.1056234718826406 0.0719022687609075 0.8921465968586385 0.03525305410122163 0.0003490401396160558 0.0003490401396160558 0.0007142857142857143 0.015 0.615 0.3078571428571429 0.06142857142857142 0.6028688524590165 0.3959016393442623 0.0004098360655737706 0.0004098360655737706 0.0004098360655737706 0.001470588235294118 0.2588235294117647 0.611764705882353 0.1191176470588235 0.008823529411764706 0.008333333333333335 0.008333333333333335 0.5083333333333334 0.4666666666666667 0.008333333333333335 0.2 0.2 0.2 0.2 0.2 0.0005167958656330751 0.0005167958656330751 0.8661498708010338 0.1322997416020672 0.0005167958656330751 0.006666666666666667 0.006666666666666667 0.1066666666666667 0.64 0.24 0.0006578947368421055 0.09605263157894739 0.8296052631578949 0.0730263157894737 0.0006578947368421055 0.005128205128205128 0.005128205128205128 0.005128205128205128 0.6461538461538461 0.3384615384615384 0.0009132420091324204 0.6447488584474888 0.3342465753424659 0.01917808219178083 0.0009132420091324204 0.008 0.008 0.128 0.568 0.288 0.1527426160337553 0.8320675105485235 0.01350210970464136 0.0008438818565400847 0.0008438818565400847 0.008000000000000002 0.04800000000000001 0.2080000000000001 0.528 0.2080000000000001 0.002564102564102564 0.002564102564102564 0.02820512820512821 0.9128205128205128 0.05384615384615385 0.2 0.2 0.2 0.2 0.2 0.0005617977528089888 0.0005617977528089888 0.2814606741573034 0.7140449438202247 0.003370786516853932 0.03333333333333333 0.03333333333333333 0.03333333333333333 0.3666666666666667 0.5333333333333333 0.0008771929824561404 0.0008771929824561404 0.707017543859649 0.2859649122807018 0.005263157894736842 0.04000000000000001 0.04000000000000001 0.04000000000000001 0.6400000000000001 0.24 0.002247191011235955 0.09213483146067415 0.8561797752808988 0.04719101123595506 0.002247191011235955 0.1 0.1 0.6 0.1 0.1 0.00303030303030303 0.7454545454545454 0.2454545454545454 0.00303030303030303 0.00303030303030303 0.05 0.05 0.8 0.05 0.05 0.001801801801801802 0.001801801801801802 0.001801801801801802 0.7225225225225226 0.2720720720720721 0.06666666666666667 0.06666666666666667 0.06666666666666667 0.06666666666666667 0.7333333333333334 0.0005347593582887701 0.0005347593582887701 0.0005347593582887701 0.8721925133689839 0.1262032085561497 0.05 0.05 0.05 0.05 0.8 0.002298850574712643 0.002298850574712643 0.3816091954022988 0.6 0.01379310344827586 0.06666666666666665 0.06666666666666665 0.06666666666666665 0.7333333333333333 0.06666666666666665 0.008695652173913045 0.008695652173913045 0.8782608695652174 0.05217391304347827 0.05217391304347827 0.1 0.1 0.6 0.1 0.1 0.009523809523809526 0.009523809523809526 0.9142857142857145 0.05714285714285716 0.009523809523809526 0.2 0.2 0.2 0.2 0.2 0.002409638554216868 0.002409638554216868 0.002409638554216868 0.1590361445783133 0.8337349397590362 0.2 0.2 0.2 0.2 0.2 0.001680672268907563 0.001680672268907563 0.001680672268907563 0.3210084033613446 0.6739495798319328 0.2 0.2 0.2 0.2 0.2 0.009523809523809525 0.009523809523809525 0.009523809523809525 0.8190476190476189 0.1523809523809524 0.2 0.2 0.2 0.2 0.2 0.02857142857142857 0.02857142857142857 0.02857142857142857 0.7428571428571429 0.1714285714285714 0.2 0.2 0.2 0.2 0.2 0.03333333333333333 0.03333333333333333 0.03333333333333333 0.8666666666666665 0.03333333333333333 0.2 0.2 0.2 0.2 0.2</probabilities>
		</cpt>
		<cpt id="pH">
			<state id="s1_below_3" />
			<state id="s2_3_3" />
			<state id="s3_3_3" />
			<state id="s4_3_3" />
			<state id="s5_3_up" />
			<parents>alcohol type</parents>
			<probabilities>0.1735849056603774 0.5729559748427674 0.239622641509434 0.01006289308176101 0.003773584905660378 0.15 0.525 0.275 0.025 0.025 0.09595519601742375 0.5657747355320473 0.2863721219663969 0.04928438083385189 0.002613565650280025 0.02255192878338279 0.2732937685459941 0.5077151335311573 0.1753709198813057 0.02106824925816024 0.0661893396976929 0.4329355608591885 0.3557677008750994 0.1163086714399363 0.02879872712808273 0.01147902869757174 0.1991169977924945 0.5567328918322295 0.2145695364238411 0.01810154525386313 0.08732083792723264 0.454465270121279 0.3761852260198457 0.07519294377067255 0.006835722160970232 0.01699346405228758 0.1901960784313726 0.4843137254901961 0.265359477124183 0.04313725490196078 0.08132678132678133 0.44004914004914 0.4117936117936118 0.0628992628992629 0.003931203931203931 0.0196319018404908 0.1423312883435583 0.4920245398773007 0.2220858895705522 0.1239263803680982</probabilities>
		</cpt>
		<cpt id="Vfixed_acidity">
			<state id="s1_below_6" />
			<state id="s2_6_8" />
			<state id="s3_8_10" />
			<state id="s4_10_12" />
			<state id="s5_12_up" />
			<parents>density pH type</parents>
			<probabilities>0.07857142857142858 0.9000000000000001 0.007142857142857144 0.007142857142857144 0.007142857142857144 0.2 0.2 0.2 0.2 0.2 0.1948387096774194 0.7754838709677421 0.02709677419354839 0.001290322580645162 0.001290322580645162 0.2 0.2 0.2 0.2 0.2 0.4618181818181819 0.5345454545454547 0.001212121212121212 0.001212121212121212 0.001212121212121212 0.2 0.2 0.2 0.2 0.2 0.8642857142857144 0.1142857142857143 0.007142857142857144 0.007142857142857144 0.007142857142857144 0.2 0.2 0.2 0.2 0.2 0.6000000000000001 0.1 0.1 0.1 0.1 0.2 0.2 0.2 0.2 0.2 0.001428571428571429 0.6228571428571429 0.3728571428571429 0.001428571428571429 0.001428571428571429 0.06666666666666665 0.06666666666666665 0.7333333333333333 0.06666666666666665 0.06666666666666665 0.04535211267605633 0.8622535211267605 0.09042253521126759 0.0002816901408450704 0.001690140845070422 0.06666666666666665 0.7333333333333333 0.06666666666666665 0.06666666666666665 0.06666666666666665 0.2225396825396825 0.7542857142857141 0.02253968253968254 0.0003174603174603175 0.0003174603174603175 0.08000000000000002 0.8133333333333335 0.08000000000000002 0.01333333333333334 0.01333333333333334 0.5492063492063493 0.4460317460317461 0.001587301587301587 0.001587301587301587 0.001587301587301587 0.7625000000000002 0.2000000000000001 0.0125 0.0125 0.0125 0.8200000000000002 0.12 0.02000000000000001 0.02000000000000001 0.02000000000000001 0.9200000000000003 0.02000000000000001 0.02000000000000001 0.02000000000000001 0.02000000000000001 0.01043478260869565 0.5669565217391304 0.4104347826086956 0.01043478260869565 0.001739130434782609 0.06666666666666665 0.06666666666666665 0.06666666666666665 0.7333333333333333 0.06666666666666665 0.03666274970622796 0.8051703877790833 0.1565217391304347 0.001410105757931845 0.0002350176263219741 0.002985074626865672 0.4208955223880597 0.4358208955223881 0.1373134328358209 0.002985074626865672 0.1660952380952381 0.7908571428571427 0.04228571428571427 0.0003809523809523809 0.0003809523809523809 0.0124031007751938 0.6906976744186048 0.2798449612403102 0.01627906976744186 0.0007751937984496126 0.1354330708661417 0.8362204724409449 0.02519685039370079 0.001574803149606299 0.001574803149606299 0.09838709677419354 0.8725806451612903 0.02580645161290323 0.001612903225806452 0.001612903225806452 0.3517241379310345 0.6275862068965519 0.006896551724137933 0.006896551724137933 0.006896551724137933 0.7111111111111111 0.2666666666666667 0.007407407407407409 0.007407407407407409 0.007407407407407409 0.01833333333333333 0.8933333333333332 0.05166666666666666 0.035 0.001666666666666666 0.01052631578947368 0.06315789473684209 0.3263157894736842 0.3263157894736842 0.2736842105263158 0.01038525963149078 0.899832495812395 0.08576214405360132 0.003685092127303182 0.0003350083752093801 0.0009950248756218905 0.1253731343283582 0.4786069651741294 0.3592039800995025 0.03582089552238806 0.1243027888446215 0.7936254980079682 0.08047808764940241 0.0007968127490039843 0.0007968127490039843 0.00439121756487026 0.4295409181636727 0.4674650698602795 0.09820359281437127 0.0003992015968063873 0.05333333333333332 0.9366666666666665 0.003333333333333333 0.003333333333333333 0.003333333333333333 0.001142857142857143 0.8640000000000002 0.1325714285714286 0.001142857142857143 0.001142857142857143 0.290909090909091 0.6545454545454547 0.01818181818181818 0.01818181818181818 0.01818181818181818 0.01052631578947369 0.9578947368421055 0.01052631578947369 0.01052631578947369 0.01052631578947369 0.005128205128205128 0.5692307692307692 0.3897435897435897 0.03076923076923077 0.005128205128205128 0.025 0.025 0.15 0.025 0.775 0.002061855670103092 0.7958762886597937 0.1979381443298969 0.002061855670103092 0.002061855670103092 0.002173913043478261 0.002173913043478261 0.05652173913043478 0.4695652173913044 0.4695652173913044 0.01290322580645161 0.8301075268817204 0.1526881720430107 0.002150537634408602 0.002150537634408602 0.003703703703703704 0.05925925925925926 0.4111111111111111 0.4296296296296296 0.0962962962962963 0.01818181818181819 0.9272727272727275 0.01818181818181819 0.01818181818181819 0.01818181818181819 0.009523809523809525 0.2952380952380952 0.5809523809523809 0.1047619047619048 0.009523809523809525 0.06666666666666665 0.7333333333333333 0.06666666666666665 0.06666666666666665 0.06666666666666665 0.06666666666666667 0.4 0.4 0.06666666666666667 0.06666666666666667</probabilities>
		</cpt>
		<cpt id="Vvolatile_acidity">
			<state id="s1_below_0" />
			<state id="s2_0_0" />
			<state id="s3_0_0" />
			<state id="s4_0_1" />
			<state id="s5_1_up" />
			<parents>type</parents>
			<probabilities>0.2284547866911615 0.736721779955093 0.03310879771381915 0.001673810981833027 4.082465809348848e-005 0.012625 0.43325 0.488875 0.06012499999999999 0.005124999999999999</probabilities>
		</cpt>
		<cpt id="Vcitric_acid">
			<state id="s1_below_0" />
			<state id="s2_0_0" />
			<state id="s3_0_0" />
			<state id="s4_0_0" />
			<state id="s5_0_up" />
			<parents>Vfixed_acidity Vvolatile_acidity</parents>
			<probabilities>0.05 0.8645161290322581 0.07419354838709677 0.009677419354838708 0.001612903225806452 0.2572072072072072 0.6693693693693694 0.06126126126126127 0.01171171171171171 0.0004504504504504506 0.9033333333333332 0.08666666666666666 0.003333333333333333 0.003333333333333333 0.003333333333333333 0.6 0.1714285714285714 0.02857142857142857 0.1714285714285714 0.02857142857142857 0.6000000000000001 0.1 0.1 0.1 0.1 0.01826381059751972 0.7961668545659525 0.1512965050732807 0.03179255918827507 0.002480270574971815 0.08756861478850503 0.7023571197933486 0.1760413303196643 0.03009363900548919 0.00393929609299322 0.7118584070796458 0.2375221238938052 0.04814159292035397 0.002123893805309734 0.0003539823008849557 0.8533333333333332 0.08666666666666666 0.05333333333333332 0.003333333333333333 0.003333333333333333 0.7999999999999998 0.04999999999999999 0.04999999999999999 0.04999999999999999 0.04999999999999999 0.001612903225806452 0.5580645161290323 0.4048387096774194 0.03387096774193549 0.001612903225806452 0.01469534050179211 0.5648745519713262 0.3910394265232975 0.02724014336917563 0.002150537634408602 0.354863813229572 0.4832684824902724 0.1252918287937743 0.03190661478599222 0.004669260700389105 0.5687500000000001 0.35 0.06875000000000002 0.006250000000000002 0.006250000000000002 0.44 0.44 0.03999999999999999 0.03999999999999999 0.03999999999999999 0.025 0.15 0.775 0.025 0.025 0.01383647798742139 0.1459119496855346 0.6867924528301889 0.1459119496855346 0.007547169811320756 0.025 0.3375 0.4208333333333333 0.2125 0.004166666666666667 0.025 0.525 0.4 0.025 0.025 0.2 0.2 0.2 0.2 0.2 0.2 0.2 0.2 0.2 0.2 0.004081632653061224 0.004081632653061224 0.6163265306122449 0.3714285714285714 0.004081632653061224 0.01052631578947368 0.01052631578947368 0.6947368421052631 0.2736842105263158 0.01052631578947368 0.1 0.1 0.1 0.6 0.1 0.2 0.2 0.2 0.2 0.2</probabilities>
		</cpt>
		<cpt id="chlorides">
			<state id="s1_below_0" />
			<state id="s2_0_0" />
			<state id="s3_0_0" />
			<state id="s4_0_0" />
			<state id="s5_0_up" />
			<parents>alcohol type</parents>
			<probabilities>0.06037735849056605 0.8433962264150945 0.04465408805031447 0.03836477987421384 0.01320754716981132 0.025 0.15 0.025 0.275 0.525 0.09346608587429992 0.7661481020535158 0.05675171126322339 0.0312383322962041 0.05239576851275668 0.0002967359050445104 0.0344213649851632 0.2035608308605341 0.5908011869436202 0.170919881305638 0.2674622116149562 0.7018297533810659 0.01368337311058075 0.004932378679395385 0.01209228321400159 0.0004415011037527594 0.117439293598234 0.2101545253863135 0.5589403973509933 0.1130242825607064 0.5140022050716647 0.4721058434399117 0.006835722160970231 0.003528114663726571 0.003528114663726571 0.007189542483660131 0.2098039215686275 0.2718954248366013 0.3764705882352941 0.134640522875817 0.7201474201474201 0.2619164619164618 0.006388206388206387 0.006388206388206387 0.005159705159705159 0.007361963190184049 0.3447852760736196 0.3447852760736196 0.2282208588957055 0.07484662576687116</probabilities>
		</cpt>
		<cpt id="Vfree_sulfur_dioxide">
			<state id="s1_below_20" />
			<state id="s2_20_40" />
			<state id="s3_40_60" />
			<state id="s4_60_80" />
			<state id="s5_80_up" />
			<parents>Vtotal_sulfur_dioxide</parents>
			<probabilities>0.8973370064279154 0.1021120293847566 0.0001836547291092745 0.0001836547291092745 0.0001836547291092745 0.4149842271293375 0.5348580441640378 0.04984227129337539 0.0001577287066246057 0.0001577287066246057 0.1682218309859155 0.58943661971831 0.219718309859155 0.02209507042253522 0.0005281690140845071 0.05010266940451746 0.3375770020533881 0.4683093771389459 0.1240246406570842 0.01998631074606434 0.01747572815533981 0.1970873786407767 0.4762135922330096 0.2577669902912621 0.05145631067961164</probabilities>
		</cpt>
		<cpt id="sulphates">
			<state id="s1_below_0" />
			<state id="s2_0_0" />
			<state id="s3_0_0" />
			<state id="s4_0_0" />
			<state id="s5_0_up" />
			<parents>type</parents>
			<probabilities>0.01698305776689121 0.554439681567667 0.3725658297611758 0.05005103082261687 0.005960400081649317 0.000125 0.0945 0.5932500000000001 0.24325 0.06887500000000001</probabilities>
		</cpt>
		<cpt id="quality">
			<state id="State3" />
			<state id="State4" />
			<state id="State5" />
			<state id="State6" />
			<state id="State7" />
			<state id="State8" />
			<state id="State9" />
			<parents>Vvolatile_acidity alcohol</parents>
			<probabilities>0.002421307506053269 0.002421307506053269 0.1041162227602906 0.3583535108958839 0.2397094430992736 0.2905569007263923 0.002421307506053269 0.003651300775901414 0.01004107713372889 0.2113190324052943 0.5787311729803741 0.1857599269739845 0.01004107713372889 0.0004564125969876768 0.002915451895043731 0.02332361516034985 0.1942419825072886 0.5360787172011662 0.227405247813411 0.01567055393586006 0.0003644314868804664 0.0005213764337851928 0.01147028154327424 0.1173096976016684 0.5151199165797705 0.2997914494264859 0.05526590198123044 0.0005213764337851928 0.001347708894878706 0.001347708894878706 0.02021563342318059 0.5862533692722373 0.3126684636118599 0.07681940700808625 0.001347708894878706 0.004446914952751528 0.03946637020566982 0.5764313507504169 0.3312951639799889 0.0433574207893274 0.004446914952751528 0.0005558643690939411 0.003561535417491097 0.03264740799366839 0.5534230312623665 0.3754451919271865 0.03333992876929166 0.00148397309062129 9.893153937475269e-005 0.003042456091826857 0.03498824505600885 0.3292767252108976 0.4986862121421657 0.1201770156271608 0.01272299820218504 0.001106347669755221 0.006501715730540004 0.02799349828426946 0.1341881885497562 0.499548491963157 0.2821022214195413 0.04948528083799893 0.0001806032147372223 0.002740226525392766 0.009134088417975887 0.03982462550237487 0.4132261600292291 0.4311289733284619 0.09864815491413957 0.005297771282426015 0.1948051948051948 0.1948051948051948 0.5584415584415586 0.01298701298701299 0.01298701298701299 0.01298701298701299 0.01298701298701299 0.006547619047619046 0.0607142857142857 0.6773809523809523 0.2482142857142856 0.006547619047619046 0.0002976190476190475 0.0002976190476190475 0.000578368999421631 0.06940427993059573 0.3932909196067091 0.470213996529786 0.0653556969346443 0.000578368999421631 0.000578368999421631 0.00892857142857143 0.05580357142857145 0.2667410714285715 0.5245535714285715 0.1417410714285715 0.001116071428571429 0.001116071428571429 0.001721170395869191 0.03786574870912221 0.1703958691910499 0.4354561101549055 0.2185886402753873 0.1342512908777969 0.001721170395869191 0.1428571428571429 0.1428571428571429 0.1428571428571429 0.1428571428571429 0.1428571428571429 0.1428571428571429 0.1428571428571429 0.04870129870129869 0.1168831168831169 0.6850649350649348 0.1396103896103896 0.003246753246753246 0.003246753246753246 0.003246753246753246 0.03265306122448979 0.1755102040816327 0.4897959183673469 0.2612244897959183 0.03265306122448979 0.004081632653061224 0.004081632653061224 0.05442176870748298 0.3401360544217687 0.2448979591836735 0.3401360544217687 0.006802721088435373 0.006802721088435373 0.006802721088435373 0.01785714285714286 0.1428571428571429 0.01785714285714286 0.1428571428571429 0.5178571428571429 0.1428571428571429 0.01785714285714286 0.1428571428571429 0.1428571428571429 0.1428571428571429 0.1428571428571429 0.1428571428571429 0.1428571428571429 0.1428571428571429 0.04761904761904762 0.380952380952381 0.380952380952381 0.04761904761904762 0.04761904761904762 0.04761904761904762 0.04761904761904762 0.357142857142857 0.0238095238095238 0.5238095238095237 0.0238095238095238 0.0238095238095238 0.0238095238095238 0.0238095238095238 0.07142857142857144 0.5714285714285715 0.07142857142857144 0.07142857142857144 0.07142857142857144 0.07142857142857144 0.07142857142857144 0.1428571428571429 0.1428571428571429 0.1428571428571429 0.1428571428571429 0.1428571428571429 0.1428571428571429 0.1428571428571429</probabilities>
		</cpt>
	</nodes>
	<extensions>
		<genie version="1.0" app="GeNIe 2.0.5219.0" name="wine" faultnameformat="nodestate">
			<node id="Vfixed_acidity">
				<name>Vfixed_acidity</name>
				<interior color="e5f6f7" />
				<outline color="000080" />
				<font color="000000" name="Arial" size="8" />
				<position>394 10 466 58</position>
			</node>
			<node id="Vvolatile_acidity">
				<name>Vvolatile_acidity</name>
				<interior color="e5f6f7" />
				<outline color="000080" />
				<font color="000000" name="Arial" size="8" />
				<position>205 4 277 52</position>
			</node>
			<node id="Vcitric_acid">
				<name>Vcitric_acid</name>
				<interior color="e5f6f7" />
				<outline color="000080" />
				<font color="000000" name="Arial" size="8" />
				<position>490 10 562 58</position>
			</node>
			<node id="Vresidual_sugar">
				<name>Vresidual_sugar</name>
				<interior color="e5f6f7" />
				<outline color="000080" />
				<font color="000000" name="Arial" size="8" />
				<position>106 10 178 58</position>
			</node>
			<node id="chlorides">
				<name>chlorides</name>
				<interior color="e5f6f7" />
				<outline color="000080" />
				<font color="000000" name="Arial" size="8" />
				<position>225 307 297 355</position>
			</node>
			<node id="Vfree_sulfur_dioxide">
				<name>Vfree_sulfur_dioxide</name>
				<interior color="e5f6f7" />
				<outline color="000080" />
				<font color="000000" name="Arial" size="8" />
				<position>73 64 145 112</position>
			</node>
			<node id="Vtotal_sulfur_dioxide">
				<name>Vtotal_sulfur_dioxide</name>
				<interior color="e5f6f7" />
				<outline color="000080" />
				<font color="000000" name="Arial" size="8" />
				<position>10 10 82 58</position>
			</node>
			<node id="density">
				<name>density</name>
				<interior color="e5f6f7" />
				<outline color="000080" />
				<font color="000000" name="Arial" size="8" />
				<position>345 92 417 140</position>
			</node>
			<node id="pH">
				<name>pH</name>
				<interior color="e5f6f7" />
				<outline color="000080" />
				<font color="000000" name="Arial" size="8" />
				<position>460 124 532 172</position>
			</node>
			<node id="sulphates">
				<name>sulphates</name>
				<interior color="e5f6f7" />
				<outline color="000080" />
				<font color="000000" name="Arial" size="8" />
				<position>185 85 257 133</position>
			</node>
			<node id="alcohol">
				<name>alcohol</name>
				<interior color="e5f6f7" />
				<outline color="000080" />
				<font color="000000" name="Arial" size="8" />
				<position>178 211 250 259</position>
			</node>
			<node id="quality">
				<name>quality</name>
				<interior color="e5f6f7" />
				<outline color="000080" />
				<font color="000000" name="Arial" size="8" />
				<position>343 235 415 283</position>
			</node>
			<node id="type">
				<name>type</name>
				<interior color="e5f6f7" />
				<outline color="000080" />
				<font color="000000" name="Arial" size="8" />
				<position>58 170 130 218</position>
			</node>
			<textbox>
				<caption>Input file: wine\nData rows: 6497\n\nLearning algorithm: Bayesian Search\nElapsed time: 141.734 seconds\nBest score in iteration 18: 3395\n\nAlgorithm parameters:\nMax parent count: 8\nIterations: 20\nSample size: 50\nSeed: 0\nLink probability: 0.1\nPrior link probability: 0.001\nMax search time: 0\nUse accuracy as score: K-fold(10)\n  class variable: quality\nBackground knowledge was provided:\n  nodes assigned to tiers: 13</caption>
				<font color="000000" name="Arial" size="8" />
				<position>10 270 197 536</position>
			</textbox>
		</genie>
	</extensions>
</smile>
